{"graph_0": {"_type": "graph-file", "path": "media/graph/graph_0_summary_570043e621ab26c2d0ae.graph.json", "sha256": "570043e621ab26c2d0ae375a84c009c70a6518058dee494abe836081a07f88d6", "size": 251}, "parameters/0.weight": {"_type": "histogram", "values": [1.0, 0.0, 0.0, 0.0, 0.0, 0.0, 0.0, 0.0, 0.0, 0.0, 0.0, 0.0, 0.0, 0.0, 0.0, 0.0, 0.0, 0.0, 0.0, 0.0, 0.0, 0.0, 0.0, 0.0, 0.0, 0.0, 0.0, 0.0, 0.0, 0.0, 0.0, 0.0, 0.0, 0.0, 0.0, 0.0, 1.0, 0.0, 0.0, 0.0, 0.0, 0.0, 0.0, 0.0, 0.0, 0.0, 0.0, 0.0, 0.0, 0.0, 0.0, 0.0, 0.0, 0.0, 0.0, 0.0, 0.0, 1.0, 0.0, 0.0, 0.0, 0.0, 0.0, 1.0], "bins": [-3.4001777172088623, -3.2533082962036133, -3.106438636779785, -2.959568977355957, -2.812699556350708, -2.665830135345459, -2.518960475921631, -2.3720908164978027, -2.2252213954925537, -2.0783519744873047, -1.9314823150634766, -1.784612774848938, -1.6377432346343994, -1.4908736944198608, -1.3440041542053223, -1.1971346139907837, -1.0502650737762451, -0.9033955335617065, -0.756525993347168, -0.6096564531326294, -0.4627869129180908, -0.31591737270355225, -0.16904783248901367, -0.022178292274475098, 0.12469124794006348, 0.27156078815460205, 0.4184303283691406, 0.5652998685836792, 0.7121694087982178, 0.8590389490127563, 1.005908489227295, 1.1527780294418335, 1.299647331237793, 1.4465168714523315, 1.5933864116668701, 1.7402559518814087, 1.8871254920959473, 2.0339951515197754, 2.1808645725250244, 2.3277339935302734, 2.4746036529541016, 2.6214733123779297, 2.7683427333831787, 2.9152121543884277, 3.062081813812256, 3.208951473236084, 3.355820894241333, 3.502690315246582, 3.64955997467041, 3.7964296340942383, 3.9432990550994873, 4.090168476104736, 4.2370381355285645, 4.383907794952393, 4.5307769775390625, 4.677646636962891, 4.824516296386719, 4.971385955810547, 5.118255615234375, 5.265124797821045, 5.411994457244873, 5.558864116668701, 5.705733299255371, 5.852602958679199, 5.999472618103027]}, "parameters/0.bias": {"_type": "histogram", "values": [0.0, 0.0, 0.0, 0.0, 0.0, 0.0, 0.0, 0.0, 0.0, 0.0, 0.0, 0.0, 0.0, 0.0, 0.0, 0.0, 0.0, 0.0, 0.0, 0.0, 0.0, 0.0, 0.0, 0.0, 0.0, 0.0, 0.0, 0.0, 0.0, 0.0, 0.0, 0.0, 1.0, 0.0, 0.0, 0.0, 0.0, 0.0, 0.0, 0.0, 0.0, 0.0, 0.0, 0.0, 0.0, 0.0, 0.0, 0.0, 0.0, 0.0, 0.0, 0.0, 0.0, 0.0, 0.0, 0.0, 0.0, 0.0, 0.0, 0.0, 0.0, 0.0, 0.0, 0.0], "bins": [2.40032958984375, 2.40032958984375, 2.40032958984375, 2.40032958984375, 2.40032958984375, 2.40032958984375, 2.40032958984375, 2.40032958984375, 2.40032958984375, 2.40032958984375, 2.40032958984375, 2.40032958984375, 2.40032958984375, 2.40032958984375, 2.40032958984375, 2.40032958984375, 2.40032958984375, 2.40032958984375, 2.40032958984375, 2.40032958984375, 2.40032958984375, 2.40032958984375, 2.40032958984375, 2.40032958984375, 2.40032958984375, 2.40032958984375, 2.40032958984375, 2.40032958984375, 2.40032958984375, 2.40032958984375, 2.40032958984375, 2.40032958984375, 2.40032958984375, 2.40032958984375, 2.40032958984375, 2.40032958984375, 2.40032958984375, 2.40032958984375, 2.40032958984375, 2.40032958984375, 2.40032958984375, 2.40032958984375, 2.40032958984375, 2.40032958984375, 2.40032958984375, 2.40032958984375, 2.40032958984375, 2.40032958984375, 2.40032958984375, 2.40032958984375, 2.40032958984375, 2.40032958984375, 2.40032958984375, 2.40032958984375, 2.40032958984375, 2.40032958984375, 2.40032958984375, 2.40032958984375, 2.40032958984375, 2.40032958984375, 2.40032958984375, 2.40032958984375, 2.40032958984375, 2.40032958984375, 2.40032958984375]}, "gradients/0.bias": {"_type": "histogram", "values": [0.0, 0.0, 0.0, 0.0, 0.0, 0.0, 0.0, 0.0, 0.0, 0.0, 0.0, 0.0, 0.0, 0.0, 0.0, 0.0, 0.0, 0.0, 0.0, 0.0, 0.0, 0.0, 0.0, 0.0, 0.0, 0.0, 0.0, 0.0, 0.0, 0.0, 0.0, 0.0, 1.0, 0.0, 0.0, 0.0, 0.0, 0.0, 0.0, 0.0, 0.0, 0.0, 0.0, 0.0, 0.0, 0.0, 0.0, 0.0, 0.0, 0.0, 0.0, 0.0, 0.0, 0.0, 0.0, 0.0, 0.0, 0.0, 0.0, 0.0, 0.0, 0.0, 0.0, 0.0], "bins": [-0.0007509291172027588, -0.0007509291172027588, -0.0007509291172027588, -0.0007509291172027588, -0.0007509291172027588, -0.0007509291172027588, -0.0007509291172027588, -0.0007509291172027588, -0.0007509291172027588, -0.0007509291172027588, -0.0007509291172027588, -0.0007509291172027588, -0.0007509291172027588, -0.0007509291172027588, -0.0007509291172027588, -0.0007509291172027588, -0.0007509291172027588, -0.0007509291172027588, -0.0007509291172027588, -0.0007509291172027588, -0.0007509291172027588, -0.0007509291172027588, -0.0007509291172027588, -0.0007509291172027588, -0.0007509291172027588, -0.0007509291172027588, -0.0007509291172027588, -0.0007509291172027588, -0.0007509291172027588, -0.0007509291172027588, -0.0007509291172027588, -0.0007509291172027588, -0.0007509291172027588, -0.0007509291172027588, -0.0007509291172027588, -0.0007509291172027588, -0.0007509291172027588, -0.0007509291172027588, -0.0007509291172027588, -0.0007509291172027588, -0.0007509291172027588, -0.0007509291172027588, -0.0007509291172027588, -0.0007509291172027588, -0.0007509291172027588, -0.0007509291172027588, -0.0007509291172027588, -0.0007509291172027588, -0.0007509291172027588, -0.0007509291172027588, -0.0007509291172027588, -0.0007509291172027588, -0.0007509291172027588, -0.0007509291172027588, -0.0007509291172027588, -0.0007509291172027588, -0.0007509291172027588, -0.0007509291172027588, -0.0007509291172027588, -0.0007509291172027588, -0.0007509291172027588, -0.0007509291172027588, -0.0007509291172027588, -0.0007509291172027588, -0.0007509291172027588]}, "gradients/0.weight": {"_type": "histogram", "values": [1.0, 0.0, 0.0, 0.0, 0.0, 0.0, 0.0, 0.0, 0.0, 0.0, 0.0, 0.0, 0.0, 0.0, 0.0, 0.0, 0.0, 0.0, 0.0, 0.0, 0.0, 0.0, 0.0, 0.0, 0.0, 0.0, 0.0, 0.0, 0.0, 0.0, 0.0, 0.0, 0.0, 0.0, 0.0, 0.0, 0.0, 0.0, 0.0, 0.0, 0.0, 0.0, 1.0, 0.0, 0.0, 0.0, 0.0, 0.0, 0.0, 0.0, 0.0, 0.0, 0.0, 0.0, 0.0, 0.0, 1.0, 0.0, 0.0, 0.0, 0.0, 0.0, 0.0, 1.0], "bins": [-0.005348313599824905, -0.005258040968328714, -0.005167767871171236, -0.005077495239675045, -0.004987222142517567, -0.004896949511021376, -0.004806676879525185, -0.004716403782367706, -0.004626131150871515, -0.004535858519375324, -0.004445585422217846, -0.004355312790721655, -0.0042650396935641766, -0.0041747670620679855, -0.004084493964910507, -0.003994221333414316, -0.0039039484690874815, -0.003813675604760647, -0.003723402740433812, -0.0036331298761069775, -0.0035428572446107864, -0.0034525843802839518, -0.003362311515957117, -0.0032720386516302824, -0.0031817657873034477, -0.003091492922976613, -0.0030012200586497784, -0.0029109474271535873, -0.0028206745628267527, -0.002730401698499918, -0.0026401288341730833, -0.0025498559698462486, -0.0024595833383500576, -0.002369310474023223, -0.0022790376096963882, -0.0021887649782001972, -0.0020984921138733625, -0.002008219249546528, -0.0019179463852196932, -0.0018276735208928585, -0.0017374007729813457, -0.001647127908654511, -0.0015568551607429981, -0.0014665822964161634, -0.0013763094320893288, -0.001286036684177816, -0.0011957638198509812, -0.0011054910719394684, -0.0010152182076126337, -0.0009249454014934599, -0.0008346725953742862, -0.0007443997310474515, -0.0006541269249282777, -0.000563854118809104, -0.0004735812544822693, -0.0003833084483630955, -0.00029303564224392176, -0.00020276282157283276, -0.00011249000090174377, -2.2217165678739548e-05, 6.805564044043422e-05, 0.00015832844655960798, 0.00024860131088644266, 0.0003388741170056164, 0.0004291469231247902]}, "loss": 9.331631736131385e-05, "_runtime": 7250, "_timestamp": 1636986376, "_step": 9, "_wandb": {"runtime": 6}}