{"graph_1": {"_type": "graph-file", "path": "media/graph/graph_1_summary_f97fc56095cc483ff140.graph.json", "sha256": "f97fc56095cc483ff14033a1132f0eef18ffd57276ff76598a07ff46d5ddd1df", "size": 251}, "parameters/graph_10.weight": {"_type": "histogram", "values": [1.0, 0.0, 0.0, 0.0, 0.0, 0.0, 0.0, 0.0, 0.0, 0.0, 0.0, 0.0, 0.0, 0.0, 0.0, 0.0, 0.0, 0.0, 0.0, 0.0, 0.0, 0.0, 0.0, 0.0, 0.0, 0.0, 0.0, 0.0, 0.0, 0.0, 0.0, 0.0, 0.0, 0.0, 0.0, 0.0, 1.0, 0.0, 0.0, 0.0, 0.0, 0.0, 0.0, 0.0, 0.0, 0.0, 0.0, 0.0, 0.0, 0.0, 0.0, 0.0, 0.0, 0.0, 0.0, 0.0, 0.0, 1.0, 0.0, 0.0, 0.0, 0.0, 0.0, 1.0], "bins": [-3.400444269180298, -3.2535552978515625, -3.1066665649414062, -2.95977783203125, -2.8128888607025146, -2.6659998893737793, -2.519111156463623, -2.372222423553467, -2.2253334522247314, -2.078444480895996, -1.9315557479858398, -1.784666895866394, -1.6377780437469482, -1.4908891916275024, -1.3440003395080566, -1.1971114873886108, -1.050222635269165, -0.9033337831497192, -0.7564449310302734, -0.6095560789108276, -0.46266722679138184, -0.31577837467193604, -0.16888952255249023, -0.022000670433044434, 0.12488818168640137, 0.27177703380584717, 0.41866588592529297, 0.5655547380447388, 0.7124435901641846, 0.8593324422836304, 1.0062212944030762, 1.153110146522522, 1.2999992370605469, 1.4468880891799927, 1.5937769412994385, 1.7406657934188843, 1.88755464553833, 2.0344433784484863, 2.1813323497772217, 2.328221321105957, 2.4751100540161133, 2.6219987869262695, 2.768887758255005, 2.9157767295837402, 3.0626654624938965, 3.2095541954040527, 3.356443166732788, 3.5033321380615234, 3.6502208709716797, 3.797109603881836, 3.9439985752105713, 4.090887546539307, 4.237776279449463, 4.384665012359619, 4.531554222106934, 4.67844295501709, 4.825331687927246, 4.972220420837402, 5.119109153747559, 5.265998363494873, 5.412887096405029, 5.5597758293151855, 5.7066650390625, 5.853553771972656, 6.0004425048828125]}, "parameters/graph_10.bias": {"_type": "histogram", "values": [0.0, 0.0, 0.0, 0.0, 0.0, 0.0, 0.0, 0.0, 0.0, 0.0, 0.0, 0.0, 0.0, 0.0, 0.0, 0.0, 0.0, 0.0, 0.0, 0.0, 0.0, 0.0, 0.0, 0.0, 0.0, 0.0, 0.0, 0.0, 0.0, 0.0, 0.0, 0.0, 1.0, 0.0, 0.0, 0.0, 0.0, 0.0, 0.0, 0.0, 0.0, 0.0, 0.0, 0.0, 0.0, 0.0, 0.0, 0.0, 0.0, 0.0, 0.0, 0.0, 0.0, 0.0, 0.0, 0.0, 0.0, 0.0, 0.0, 0.0, 0.0, 0.0, 0.0, 0.0], "bins": [2.399854898452759, 2.399854898452759, 2.399854898452759, 2.399854898452759, 2.399854898452759, 2.399854898452759, 2.399854898452759, 2.399854898452759, 2.399854898452759, 2.399854898452759, 2.399854898452759, 2.399854898452759, 2.399854898452759, 2.399854898452759, 2.399854898452759, 2.399854898452759, 2.399854898452759, 2.399854898452759, 2.399854898452759, 2.399854898452759, 2.399854898452759, 2.399854898452759, 2.399854898452759, 2.399854898452759, 2.399854898452759, 2.399854898452759, 2.399854898452759, 2.399854898452759, 2.399854898452759, 2.399854898452759, 2.399854898452759, 2.399854898452759, 2.399854898452759, 2.399854898452759, 2.399854898452759, 2.399854898452759, 2.399854898452759, 2.399854898452759, 2.399854898452759, 2.399854898452759, 2.399854898452759, 2.399854898452759, 2.399854898452759, 2.399854898452759, 2.399854898452759, 2.399854898452759, 2.399854898452759, 2.399854898452759, 2.399854898452759, 2.399854898452759, 2.399854898452759, 2.399854898452759, 2.399854898452759, 2.399854898452759, 2.399854898452759, 2.399854898452759, 2.399854898452759, 2.399854898452759, 2.399854898452759, 2.399854898452759, 2.399854898452759, 2.399854898452759, 2.399854898452759, 2.399854898452759, 2.399854898452759]}, "gradients/graph_10.bias": {"_type": "histogram", "values": [0.0, 0.0, 0.0, 0.0, 0.0, 0.0, 0.0, 0.0, 0.0, 0.0, 0.0, 0.0, 0.0, 0.0, 0.0, 0.0, 0.0, 0.0, 0.0, 0.0, 0.0, 0.0, 0.0, 0.0, 0.0, 0.0, 0.0, 0.0, 0.0, 0.0, 0.0, 0.0, 1.0, 0.0, 0.0, 0.0, 0.0, 0.0, 0.0, 0.0, 0.0, 0.0, 0.0, 0.0, 0.0, 0.0, 0.0, 0.0, 0.0, 0.0, 0.0, 0.0, 0.0, 0.0, 0.0, 0.0, 0.0, 0.0, 0.0, 0.0, 0.0, 0.0, 0.0, 0.0], "bins": [-0.002542685717344284, -0.002542685717344284, -0.002542685717344284, -0.002542685717344284, -0.002542685717344284, -0.002542685717344284, -0.002542685717344284, -0.002542685717344284, -0.002542685717344284, -0.002542685717344284, -0.002542685717344284, -0.002542685717344284, -0.002542685717344284, -0.002542685717344284, -0.002542685717344284, -0.002542685717344284, -0.002542685717344284, -0.002542685717344284, -0.002542685717344284, -0.002542685717344284, -0.002542685717344284, -0.002542685717344284, -0.002542685717344284, -0.002542685717344284, -0.002542685717344284, -0.002542685717344284, -0.002542685717344284, -0.002542685717344284, -0.002542685717344284, -0.002542685717344284, -0.002542685717344284, -0.002542685717344284, -0.002542685717344284, -0.002542685717344284, -0.002542685717344284, -0.002542685717344284, -0.002542685717344284, -0.002542685717344284, -0.002542685717344284, -0.002542685717344284, -0.002542685717344284, -0.002542685717344284, -0.002542685717344284, -0.002542685717344284, -0.002542685717344284, -0.002542685717344284, -0.002542685717344284, -0.002542685717344284, -0.002542685717344284, -0.002542685717344284, -0.002542685717344284, -0.002542685717344284, -0.002542685717344284, -0.002542685717344284, -0.002542685717344284, -0.002542685717344284, -0.002542685717344284, -0.002542685717344284, -0.002542685717344284, -0.002542685717344284, -0.002542685717344284, -0.002542685717344284, -0.002542685717344284, -0.002542685717344284, -0.002542685717344284]}, "gradients/graph_10.weight": {"_type": "histogram", "values": [1.0, 0.0, 0.0, 0.0, 0.0, 0.0, 0.0, 0.0, 0.0, 0.0, 0.0, 0.0, 0.0, 0.0, 0.0, 0.0, 0.0, 0.0, 0.0, 0.0, 0.0, 0.0, 0.0, 0.0, 0.0, 0.0, 0.0, 0.0, 0.0, 1.0, 0.0, 1.0, 0.0, 0.0, 0.0, 0.0, 0.0, 0.0, 0.0, 0.0, 0.0, 0.0, 0.0, 0.0, 0.0, 0.0, 0.0, 0.0, 0.0, 0.0, 0.0, 0.0, 0.0, 0.0, 0.0, 0.0, 0.0, 0.0, 0.0, 0.0, 0.0, 0.0, 0.0, 1.0], "bins": [-0.0020032061729580164, -0.0018907017074525356, -0.0017781973583623767, -0.001665692892856896, -0.001553188543766737, -0.0014406840782612562, -0.0013281796127557755, -0.0012156751472502947, -0.0011031707981601357, -0.000990666332654655, -0.000878161983564496, -0.0007656575180590153, -0.0006531531107611954, -0.0005406487034633756, -0.0004281442379578948, -0.00031563983066007495, -0.0002031354233622551, -9.063100151252002e-05, 2.1873420337215066e-05, 0.00013437785673886538, 0.00024688226403668523, 0.0003593866713345051, 0.00047189113683998585, 0.0005843955441378057, 0.0006968999514356256, 0.0008094043587334454, 0.0009219087660312653, 0.001034413231536746, 0.0011469176970422268, 0.0012594220461323857, 0.0013719265116378665, 0.0014844308607280254, 0.0015969355590641499, 0.0017094400245696306, 0.0018219443736597896, 0.0019344488391652703, 0.0020469531882554293, 0.00215945765376091, 0.002271962119266391, 0.0023844665847718716, 0.0024969708174467087, 0.0026094752829521894, 0.00272197974845767, 0.0028344839811325073, 0.002946988446637988, 0.003059492912143469, 0.0031719973776489496, 0.0032845018431544304, 0.003397006308659911, 0.003509510774165392, 0.0036220152396708727, 0.0037345197051763535, 0.0038470239378511906, 0.003959528170526028, 0.004072032868862152, 0.004184537101536989, 0.004297041799873114, 0.004409546032547951, 0.004522050730884075, 0.004634554963558912, 0.004747059661895037, 0.004859563894569874, 0.004972068592905998, 0.005084572825580835, 0.0051970770582556725]}, "loss": 0.00010522572119953111, "_runtime": 307, "_timestamp": 1633600926, "_step": 9, "_wandb": {"runtime": 307}}